tree
version=v4
num_class=1
num_tree_per_iteration=1
label_index=0
max_feature_idx=8
objective=binary sigmoid:1
feature_names=Column_0 Column_1 Column_2 Column_3 Column_4 Column_5 Column_6 Column_7 Column_8
feature_infos=[-2.7517757415771484:1.8407949209213257] [-2.4151346683502197:1.4125746488571167] [-1.6677851676940918:1.9255720376968384] [-2.0059704780578613:2.8265624046325684] [-5.1575460433959961:1.4970941543579102] [-0.9683607816696167:1.9596425294876099] [-0.55058276653289795:2.4314069747924805] [-0.96919536590576172:3.7222208976745605] [-0.55928480625152588:3.9564511775970459]
tree_sizes=945 868 969 975 764 974 971 971 965 979 978 973 977 871

Tree=0
num_leaves=8
num_cat=0
split_feature=5 0 6 6 3 6 8
split_gain=315.305 76.3972 25.5523 23.7625 21.3636 15.4956 13.82
threshold=-0.87917181849479664 -0.63203993439674366 2.082645177841187 -0.55037578940391529 1.6984280943870547 2.3171838521957402 -0.46210959553718561
decision_type=2 2 2 2 2 2 2
left_child=1 3 6 -1 -3 -4 -2
right_child=2 4 5 -5 -6 -7 -8
leaf_value=-1.1683934201925852 -1.2593681919090201 -1.2257375245488613 -1.1235710059682606 -1.0459182993471594 -1.0792907736307829 -1.2747337879380056 -1.2101792620733645
leaf_weight=4.430737853050231 24.541364550590515 9.3701900243759138 9.5876244306564313 66.789270997047424 3.2615153789520255 1.9404990673065174 33.554634094238281
leaf_count=18 132 46 33 158 9 11 157
internal_value=-1.13873 -1.07348 -1.21732 -1.05339 -1.18754 -1.14974 -1.23091
internal_weight=153.476 83.8517 69.6241 71.22 12.6317 11.5281 58.096
internal_count=564 231 333 176 55 44 289
is_linear=0
shrinkage=1


Tree=1
num_leaves=7
num_cat=0
split_feature=1 3 6 7 0 1
split_gain=231.242 86.4885 29.157 16.6161 27.2178 13.1111
threshold=0.72606855630874645 0.2706510871648789 -0.55039620399475087 -0.35582095384597773 -0.11294427514076232 0.095960903912782683
decision_type=2 2 2 2 2 2
left_child=3 -2 -3 5 -5 -1
right_child=1 2 -4 4 -6 -7
leaf_value=-0.022517005689386402 -0.0628137318942531 0.012489958330092157 0.14871855851659865 0.06899644191141123 -0.041336316455897297 0.043231212027115912
leaf_weight=39.983947530388832 5.4698687195777884 4.25543488562107 73.247099846601486 19.970876902341846 7.6099433153867713 9.2195961028337461
leaf_count=203 31 19 160 73 41 37
internal_value=0.0699317 0.127751 0.141329 0.00730247 0.0383341 -0.0100332
internal_weight=159.757 82.9724 77.5025 76.7844 27.5808 49.2035
internal_count=564 210 179 354 114 240
is_linear=0
shrinkage=0.05


Tree=2
num_leaves=8
num_cat=0
split_feature=5 0 6 7 3 3 3
split_gain=210.623 49.3538 21.6769 16.1254 16.0593 14.3797 9.01225
threshold=-0.87917181849479664 -0.63203993439674366 2.082645177841187 -0.35582095384597773 1.29419881105423 -0.31323936581611628 0.85526418685913097
decision_type=2 2 2 2 2 2 2
left_child=1 5 6 -4 -3 -1 -2
right_child=2 4 3 -5 -6 -7 -8
leaf_value=-0.056666020146844999 -0.024434619624578217 -0.022053888838486708 0.0073230875214006959 0.12445331733878842 0.08936420908179904 0.12916780133741729 0.02540282416041334
leaf_weight=0.96458406746387382 46.477009981870651 7.9774858653545362 6.8669209331274033 5.1862706393003446 5.2550109326839447 81.183856397867203 11.087093248963354
leaf_count=5 241 40 31 13 15 171 48
internal_value=0.0642002 0.112424 -0.00186459 0.0587429 0.0221569 0.126859 -0.0147216
internal_weight=164.998 95.3809 69.6173 12.0532 13.2325 82.1484 57.5641
internal_count=564 231 333 44 55 176 289
is_linear=0
shrinkage=0.05


Tree=3
num_leaves=8
num_cat=0
split_feature=5 0 6 7 6 2 6
split_gain=176.53 39.9141 19.1953 13.3039 12.945 8.15448 7.67007
threshold=-0.87917181849479664 -0.63203993439674366 2.082645177841187 -0.35582095384597773 -0.55037578940391529 -0.078782040625810609 0.61906391382217418
decision_type=2 2 2 2 2 2 2
left_child=1 4 6 -4 -1 -3 -2
right_child=2 5 3 -5 -6 -7 -8
leaf_value=0.033225611457462889 -0.0070522647194452602 0.060921885868046602 0.0069351279278186241 0.11166494059269985 0.11913068315996019 -0.016372960121246692 -0.062615456342474438
leaf_weight=4.9063290208578101 50.031580179929733 6.4602430462837219 6.8934097290039062 5.4940239638090116 81.548066854476929 6.8914810270071012 7.0570856332778922
leaf_count=18 248 22 31 13 158 33 41
internal_value=0.0593615 0.101929 -0.00177545 0.0543071 0.114357 0.0208294 -0.0141057
internal_weight=169.282 99.8061 69.4761 12.3874 86.4544 13.3517 57.0887
internal_count=564 231 333 44 176 55 289
is_linear=0
shrinkage=0.05


Tree=4
num_leaves=6
num_cat=0
split_feature=1 3 4 3 0
split_gain=137.196 55.7713 20.6772 14.3775 14.3482
threshold=0.72606855630874645 0.2706510871648789 0.83042809367179882 -1.7274199128150938 -0.64915296435356129
decision_type=2 2 2 2 2
left_child=2 -2 3 -1 -3
right_child=1 4 -4 -5 -6
leaf_value=0.10885542689381654 -0.061751087467481147 0.11134419888154856 0.12448248907153366 -0.0042865098176562786 0.042981039180612801
leaf_weight=2.8226064145565024 5.2313194274902335 80.99526809155941 3.4024524688720694 71.362061366438866 8.9395954161882383
leaf_count=9 31 148 8 337 31
internal_value=0.0552007 0.0954043 0.00576431 9.1792e-05 0.10466
internal_weight=172.753 95.1662 77.5871 74.1847 89.9349
internal_count=564 210 354 346 179
is_linear=0
shrinkage=0.05


Tree=5
num_leaves=8
num_cat=0
split_feature=5 3 7 5 7 8 5
split_gain=130.359 29.9712 15.5516 14.6004 17.3226 16.7219 9.8076
threshold=-0.87917181849479664 0.19806392490863803 1.0942065119743349 0.54723840951919567 -0.30962538719177241 -0.46882677078247065 -0.95997965335845936
decision_type=2 2 2 2 2 2 2
left_child=1 2 -1 4 -2 -5 -3
right_child=3 6 -4 5 -6 -7 -8
leaf_value=-0.063286302300432459 -0.055125976021355688 0.10376001963788194 0.10234426589400324 -0.031405840822898975 0.016716713068672815 0.043372139181863251 0.068442286394036156
leaf_weight=4.8186604082584372 19.908807471394539 69.418786093592644 1.8814303129911421 10.557306155562399 14.242281720042227 24.618379414081573 30.19200924038887
leaf_count=27 114 125 5 57 63 99 74
internal_value=0.051538 0.0862978 -0.0152198 -0.00174085 -0.0250576 0.0207618 0.0931847
internal_weight=175.638 106.311 6.70009 69.3268 34.1511 35.1757 99.6108
internal_count=564 231 32 333 177 156 199
is_linear=0
shrinkage=0.05


Tree=6
num_leaves=8
num_cat=0
split_feature=5 0 6 8 6 6 7
split_gain=113.391 26.138 16.3103 12.0586 11.486 10.7839 7.11561
threshold=-0.87917181849479664 -0.63203993439674366 2.082645177841187 -0.30985353887081141 2.3171838521957402 -0.550541192293167 0.83499804139137279
decision_type=2 2 2 2 2 2 2
left_child=1 5 3 -2 -4 -1 -3
right_child=2 6 4 -5 -6 -7 -8
leaf_value=-0.061627598504277459 -0.025586155779400478 -0.0042862229905738167 0.069248532547496494 0.030064781169199535 -0.059470889130356801 0.091314978305045397 0.078504316939309468
leaf_weight=1.0627436935901631 44.107319891452789 10.578643649816511 10.83902435004711 12.321236565709112 1.9380915313959111 93.800425872206688 3.2952156960964194
leaf_count=5 236 46 33 53 11 171 9
internal_value=0.0482877 0.0801072 -0.00167879 -0.0133146 0.0490253 0.0894858 0.0154408
internal_weight=177.943 108.737 69.2057 56.4286 12.7771 94.8632 13.8739
internal_count=564 231 333 289 44 176 55
is_linear=0
shrinkage=0.05


Tree=7
num_leaves=8
num_cat=0
split_feature=5 3 7 5 7 0 3
split_gain=99.3835 24.3159 13.2183 12.8846 16.0053 9.34601 8.93985
threshold=-0.87917181849479664 0.19806392490863803 1.0942065119743349 0.54723840951919567 -0.30962538719177241 -0.63203993439674366 -1.4800286293029783
decision_type=2 2 2 2 2 2 2
left_child=1 2 -1 4 -2 -3 -5
right_child=3 5 -4 6 -6 -7 -8
leaf_value=-0.062799991496249333 -0.053823508684136927 0.085559905149142412 0.086396811681517804 0.0755348800620671 0.015654803092923896 0.032485664047876131 0.0078716304948330054
leaf_weight=4.7067817151546469 19.111254408955574 94.278854250907898 2.0349013805389404 5.8074970841407767 14.363397300243376 9.6195430010557157 29.747692212462425
leaf_count=27 114 167 5 19 63 32 137
internal_value=0.0454022 0.074755 -0.0164312 -0.0016118 -0.0239048 0.08073 0.0192447
internal_weight=179.67 110.64 6.74168 69.0298 33.4747 103.898 35.5552
internal_count=564 231 32 333 177 199 156
is_linear=0
shrinkage=0.05


Tree=8
num_leaves=8
num_cat=0
split_feature=5 6 1 6 1 8 6
split_gain=87.7912 20.1646 15.0032 14.059 13.3803 11.4041 10.0057
threshold=-0.87917181849479664 -0.55037578940391529 0.72606855630874645 2.082645177841187 1.3600656986236574 -0.46210959553718561 2.3171838521957402
decision_type=2 2 2 2 2 2 2
left_child=1 4 -3 5 -1 -2 -5
right_child=3 2 -4 6 -6 -7 -8
leaf_value=-0.027262234898983002 -0.039999492473513892 0.019204663626401969 0.082978409834754949 0.062883739384249224 0.12960035390380825 0.0059021304794909211 -0.058513311866281004
leaf_weight=7.7933872789144498 22.506773844361305 10.557698756456373 92.147464767098427 11.215364351868628 1.5422747135162351 33.285081133246422 1.8737057149410237
leaf_count=34 132 35 160 33 2 157 11
internal_value=0.0428165 0.0701071 0.0764964 -0.00153886 0 -0.0125638 0.0448147
internal_weight=180.922 112.041 102.705 68.8809 9.33566 55.7919 13.0891
internal_count=564 231 195 333 36 289 44
is_linear=0
shrinkage=0.05


Tree=9
num_leaves=8
num_cat=0
split_feature=5 0 5 7 8 1 2
split_gain=77.9548 18.8283 11.3041 14.9529 13.2902 8.16054 5.97701
threshold=-0.87917181849479664 -0.63203993439674366 0.54723840951919567 -0.30962538719177241 -0.46882677078247065 1.3445075154304507 -0.078782040625810609
decision_type=2 2 2 2 2 2 2
left_child=1 5 3 -2 -4 -1 -3
right_child=2 6 4 -5 -6 -7 -8
leaf_value=0.064123312102198668 -0.052634503655064807 0.044013527600361008 -0.029909879246359978 0.015034013208363679 0.037054993364375281 0.096713941478356144 -0.020188625501737202
leaf_weight=70.236931815743446 18.347207322716713 7.0940459370613098 10.234848052263258 14.42166894674301 25.670669123530388 28.656640082597733 7.1058768182992917
leaf_count=136 114 22 57 63 99 40 33
internal_value=0.040473 0.0659717 -0.00148053 -0.0227462 0.0177978 0.0737058 0.0116195
internal_weight=181.768 113.093 68.6744 32.7689 35.9055 98.8936 14.1999
internal_count=564 231 333 177 156 176 55
is_linear=0
shrinkage=0.05


Tree=10
num_leaves=8
num_cat=0
split_feature=5 3 6 6 8 1 6
split_gain=69.5577 18.683 16.2819 12.0892 9.96216 9.10279 8.87047
threshold=-0.87917181849479664 0.19806392490863803 -0.55037578940391529 2.082645177841187 -0.46210959553718561 -0.13546752184629438 2.3171838521957402
decision_type=2 2 2 2 2 2 2
left_child=1 5 -3 4 -2 -1 -5
right_child=3 2 -4 6 -6 -7 -8
leaf_value=0.055638175437599462 -0.038271758685455848 -0.0045514782240003793 0.072588028608207442 0.0574182378615955 0.0050895600198290897 -0.062123240775011447 -0.057850741459088986
leaf_weight=2.5069658607244492 21.604062154889107 7.2004069089889517 99.880768746137619 11.530593961477278 33.526691973209381 4.2528111338615409 1.8238824307918537
leaf_count=7 132 26 173 33 157 25 11
internal_value=0.0383214 0.0622587 0.0673549 -0.00142884 -0.0118504 -0.0175463 0.0409908
internal_weight=182.326 113.841 107.081 68.4852 55.1308 6.75978 13.3545
internal_count=564 231 199 333 289 32 44
is_linear=0
shrinkage=0.05


Tree=11
num_leaves=8
num_cat=0
split_feature=5 3 7 5 7 8 1
split_gain=62.3443 16.639 11.1702 9.91374 13.9827 11.2381 7.16125
threshold=-0.87917181849479664 0.19806392490863803 1.0942065119743349 0.54723840951919567 -0.30962538719177241 -0.46882677078247065 1.325059771537781
decision_type=2 2 2 2 2 2 2
left_child=1 2 -1 4 -2 -5 -3
right_child=3 6 -4 5 -6 -7 -8
leaf_value=-0.061944847766573045 -0.051511622977639018 0.054086631903486088 0.07349662345829136 -0.028380646297517065 0.014458556786186842 0.033664191375958198 0.082085533652545645
leaf_weight=4.5053749084472647 17.606496095657349 71.053387895226479 2.1566866785287857 9.9258507490158063 14.470823317766188 26.248855903744698 36.494968041777611
leaf_count=27 114 145 5 57 63 99 54
internal_value=0.0363656 0.0589443 -0.0169209 -0.00137442 -0.0216431 0.0164708 0.0637015
internal_weight=182.462 114.21 6.66206 68.252 32.0773 36.1747 107.548
internal_count=564 231 32 333 177 156 199
is_linear=0
shrinkage=0.05


Tree=12
num_leaves=8
num_cat=0
split_feature=3 8 1 2 2 3 7
split_gain=54.2377 20.0103 14.6614 14.5481 7.53308 7.32714 3.44106
threshold=0.77336627244949352 -0.46882677078247065 -0.6586124300956725 0.71190896630287182 1.2110921740531924 0.95618706941604625 -0.2326327785849571
decision_type=2 2 2 2 2 2 2
left_child=1 6 5 -3 -4 -2 -1
right_child=2 3 4 -5 -6 -7 -8
leaf_value=-0.051097525787741543 0.077744253017907244 0.029061860258067587 0.06390810013170492 -0.043731061133029665 -0.0017969169787254099 -0.062809945571179956 -0.0036417013404024647
leaf_weight=15.793334886431696 1.1171485036611546 45.139709770679474 99.062612771987915 7.9527635872364035 4.4028084874153128 3.6192314177751541 5.3566388934850684
leaf_count=103 5 162 189 43 16 21 25
internal_value=0.0345442 0.00155514 0.057111 0.0180024 0.0610648 -0.0277022 -0.0393874
internal_weight=182.444 74.2424 108.202 53.0925 103.465 4.73638 21.15
internal_count=564 333 231 205 205 26 128
is_linear=0
shrinkage=0.05


Tree=13
num_leaves=7
num_cat=0
split_feature=5 3 8 8 3 0
split_gain=51.7423 20.2112 18.0557 9.885 7.17116 4.35298
threshold=-0.95997965335845936 0.85526418685913097 -0.46882677078247065 -0.47823083400726313 0.19806392490863803 -1.1140573620796201
decision_type=2 2 2 2 2 2
left_child=4 2 -2 -3 -1 -6
right_child=1 3 -4 -5 5 -7
leaf_value=-0.054216745172191709 -0.046072967412756127 0.11554335067312138 0.010627982009609122 0.029396940707027315 0.077618412324021294 0.052283276190816401
leaf_weight=1.1410553604364384 20.430864065885544 3.630030244588851 44.100516594946384 38.155366882681847 40.702963098883629 34.302072107791901
leaf_count=7 130 11 185 106 59 66
internal_value=0.0327988 0.0101903 -0.00728989 0.0372581 0.064245 0.0661835
internal_weight=182.463 106.317 64.5314 41.7854 76.1461 75.005
internal_count=564 432 315 117 132 125
is_linear=0
shrinkage=0.05


end of trees

feature_importances:
Column_6=17
Column_3=16
Column_5=16
Column_7=12
Column_8=10
Column_0=9
Column_1=9
Column_2=4
Column_4=1

parameters:
[boosting: gbdt]
[objective: binary]
[metric: binary_logloss]
[tree_learner: serial]
[device_type: cpu]
[data_sample_strategy: bagging]
[data: ]
[valid: ]
[num_iterations: 1000]
[learning_rate: 0.05]
[num_leaves: 15]
[num_threads: -1]
[seed: 42]
[deterministic: 0]
[force_col_wise: 1]
[force_row_wise: 0]
[histogram_pool_size: -1]
[max_depth: 3]
[min_data_in_leaf: 5]
[min_sum_hessian_in_leaf: 0.001]
[bagging_fraction: 0.8]
[pos_bagging_fraction: 1]
[neg_bagging_fraction: 1]
[bagging_freq: 0]
[bagging_seed: 400]
[bagging_by_query: 0]
[feature_fraction: 0.8]
[feature_fraction_bynode: 1]
[feature_fraction_seed: 30056]
[extra_trees: 0]
[extra_seed: 12879]
[early_stopping_round: 0]
[early_stopping_min_delta: 0]
[first_metric_only: 0]
[max_delta_step: 0]
[lambda_l1: 0.1]
[lambda_l2: 0.1]
[linear_lambda: 0]
[min_gain_to_split: 0]
[drop_rate: 0.1]
[max_drop: 50]
[skip_drop: 0.5]
[xgboost_dart_mode: 0]
[uniform_drop: 0]
[drop_seed: 17869]
[top_rate: 0.2]
[other_rate: 0.1]
[min_data_per_group: 100]
[max_cat_threshold: 32]
[cat_l2: 10]
[cat_smooth: 10]
[max_cat_to_onehot: 4]
[top_k: 20]
[monotone_constraints: ]
[monotone_constraints_method: basic]
[monotone_penalty: 0]
[feature_contri: ]
[forcedsplits_filename: ]
[refit_decay_rate: 0.9]
[cegb_tradeoff: 1]
[cegb_penalty_split: 0]
[cegb_penalty_feature_lazy: ]
[cegb_penalty_feature_coupled: ]
[path_smooth: 0]
[interaction_constraints: ]
[verbosity: -1]
[saved_feature_importance_type: 0]
[use_quantized_grad: 0]
[num_grad_quant_bins: 4]
[quant_train_renew_leaf: 0]
[stochastic_rounding: 1]
[linear_tree: 0]
[max_bin: 255]
[max_bin_by_feature: ]
[min_data_in_bin: 3]
[bin_construct_sample_cnt: 200000]
[data_random_seed: 175]
[is_enable_sparse: 1]
[enable_bundle: 1]
[use_missing: 1]
[zero_as_missing: 0]
[feature_pre_filter: 1]
[pre_partition: 0]
[two_round: 0]
[header: 0]
[label_column: ]
[weight_column: ]
[group_column: ]
[ignore_column: ]
[categorical_feature: ]
[forcedbins_filename: ]
[precise_float_parser: 0]
[parser_config_file: ]
[objective_seed: 16083]
[num_class: 1]
[is_unbalance: 0]
[scale_pos_weight: 3.37209]
[sigmoid: 1]
[boost_from_average: 1]
[reg_sqrt: 0]
[alpha: 0.9]
[fair_c: 1]
[poisson_max_delta_step: 0.7]
[tweedie_variance_power: 1.5]
[lambdarank_truncation_level: 30]
[lambdarank_norm: 1]
[label_gain: ]
[lambdarank_position_bias_regularization: 0]
[eval_at: ]
[multi_error_top_k: 1]
[auc_mu_weights: ]
[num_machines: 1]
[local_listen_port: 12400]
[time_out: 120]
[machine_list_filename: ]
[machines: ]
[gpu_platform_id: -1]
[gpu_device_id: -1]
[gpu_use_dp: 0]
[num_gpu: 1]

end of parameters

pandas_categorical:null
